{"w1": [[2.5675348954665926, 5.716529215251268, -4.6781051634225514, 0.3091652883673878, 0.018649123331550912, -1.6298707275581568, -7.83160572636153, -7.686409805986158, 0.4440929259708376, -6.609421145817653, 12.116550165136596, -0.45544889044182374], [-7.867673792485712, -5.194236988336171, -2.989644860311969, -1.1208184031112887, 0.04755041472432652, -10.68338253507824, -2.3903364609212767, 0.6449403727253358, 0.35586768525312173, -0.6583722389928082, 1.3774709713876419, 0.44055356111351873]], "b1": [[0.4181290924911726, 3.1598418771008534, -3.591863910057916, -1.5011443890553535, -1.0368501895511661, -2.488920074688679, 2.8419541808085897, -0.42993367497816265, -0.6196953626074654, -0.3635633089890108, -0.8170355071206107, -1.1223350580411122]], "w2": [[-6.940841615352086, 1.9729990152294041, 4.096830898089173], [4.08722340111642, -5.581534318347381, 4.192318277489617], [5.5809964770744855, -1.2754814949165667, -3.1768076611017957], [-0.6576027114926248, 0.5124800421382709, 0.007700112202394033], [-1.208069142697677, 1.1787852825765577, -0.8864255081491368], [8.190411308322165, -3.81392407953021, -6.352302150248748], [-4.590581002405919, 6.209174163378238, -2.708641803616181], [1.1197440508420045, -6.293825330591001, 4.130271354078789], [-0.37018903683665927, 0.21712056050454828, 0.10195093250941621], [1.9487293662459662, -4.519509246082485, 4.792946656398706], [-0.3735182382292937, 7.565963549148508, -9.54511512854644], [-0.19054965879851735, -0.3379369757653172, -0.36742619657091763]], "b2": [[4.136423566878734, 0.48710531719012495, -5.973376874704637]]}