{"w1": [[-2.7476687695320114, 11.551717899919787, -6.9343579550344625, -5.714165462954727, 0.47059820846735534, 4.0323534041188305, -0.9316803217542373, -1.3037267142235918], [-7.2581345455480335, 3.1475182586753236, 10.063625242733815, 7.121049982635846, 0.10614393702230038, 12.33130620039748, -1.4372985296245835, 0.8315859328875658]], "b1": [[5.643336276192954, -1.4808669607872897, -2.0079426512643135, 5.771950231251256, -0.5382792252195552, 1.1627731924899947, -2.071269920849704, -1.455182699607114]], "w2": [[5.238130974986346, -6.0152827034671255, 2.8137094186266727], [-0.28426108847107345, 10.13298522697039, -6.6263148108369005], [-7.566090564888873, -2.9087884849416907, 9.354593632061862], [-5.32804819973731, 6.472340249790247, -4.492253156190755], [0.6224324212137876, -0.009199843175146757, 0.7386758179016447], [7.931493070915793, -7.047331427770592, -3.007364328763761], [0.5690666854300314, -0.8597653402008268, 0.08462350657985722], [0.6638855370204553, 0.3841962047256143, -1.2090322200666428]], "b2": [[-11.057023368178012, 0.9987832373044644, 10.639681923669176]]}