{"w1": [[0.7065337647758401, -0.8983532127688574, 1.2345042180361445, -0.6846907996285959, -0.07891353065349761, -2.4001788774597945, -1.0624214886978949, -0.9618806156075285], [1.6227945728458948, -1.5647242156681802, -1.0809358564076086, -1.2644088495083194, -1.0463297356588603, -0.7072849571416583, 1.0704472418906374, -0.3232440318587818], [-0.20133500734662943, 2.003031307357409, -2.3383040215529967, 0.3392404657182701, 2.0805686046296765, -0.5350602710015503, -0.14493622969894873, 0.13067226937050203], [0.4985712890607923, 2.62653639298086, 0.03966385258515359, -0.2584171713808921, -0.3999154896139819, 1.060284860111722, 0.2820382693584437, 1.2807566761486442]], "b1": [[0.2754954966244372, -2.0118453449922145, -0.08248961784865895, -0.7401037447726214, 0.9139324224603962, 2.417324678452882, 1.3746914816317752, -0.8663844532279632]], "w2": [[1.1855570006659348, 0.35663174636214257, 0.09256107354649791], [-0.21459130514676872, -1.9401595970848637, 2.3174926576871724], [-0.005302403602799311, 1.5623336762219038, 2.2271635971063137], [0.6188961986279929, -0.5992241492983889, -0.8540306732418169], [-0.39369092765307395, 2.7723479742195867, 1.9686672894188753], [0.05101706335643568, 0.545550793956742, 0.4172123999262219], [0.05805563724388067, 1.2644744998160518, -0.7631498388562308], [-1.401011546346443, 0.1465397959708837, -0.4379798824761738]], "b2": [[1.2888620043652312, -0.082081295590386, -1.9990337684144932]]}